digraph Tree {
node [shape=box, style="filled, rounded", color="black", fontname=helvetica] ;
edge [fontname=helvetica] ;
0 [label="sex <= 1.5\ngini = 0.014\nsamples = 14126\nvalue = [100, 14026]\nclass = alive", fillcolor="#3a9ee5"] ;
1 [label="chronic_disease_binary <= 0.5\ngini = 0.123\nsamples = 1264\nvalue = [83, 1181]\nclass = alive", fillcolor="#47a4e7"] ;
0 -> 1 [labeldistance=2.5, labelangle=45, headlabel="True"] ;
2 [label="age <= 1.5\ngini = 0.115\nsamples = 1252\nvalue = [77, 1175]\nclass = alive", fillcolor="#46a3e7"] ;
1 -> 2 ;
3 [label="gini = 0.142\nsamples = 560\nvalue = [43, 517]\nclass = alive", fillcolor="#49a5e7"] ;
2 -> 3 ;
4 [label="gini = 0.093\nsamples = 692\nvalue = [34, 658]\nclass = alive", fillcolor="#43a2e6"] ;
2 -> 4 ;
5 [label="symptoms <= 2.5\ngini = 0.5\nsamples = 12\nvalue = [6, 6]\nclass = death", fillcolor="#ffffff"] ;
1 -> 5 ;
6 [label="gini = 0.375\nsamples = 8\nvalue = [6, 2]\nclass = death", fillcolor="#eeab7b"] ;
5 -> 6 ;
7 [label="gini = 0.0\nsamples = 4\nvalue = [0, 4]\nclass = alive", fillcolor="#399de5"] ;
5 -> 7 ;
8 [label="age <= 2.5\ngini = 0.003\nsamples = 12862\nvalue = [17, 12845]\nclass = alive", fillcolor="#399de5"] ;
0 -> 8 [labeldistance=2.5, labelangle=-45, headlabel="False"] ;
9 [label="age <= 1.5\ngini = 0.002\nsamples = 12856\nvalue = [16, 12840]\nclass = alive", fillcolor="#399de5"] ;
8 -> 9 ;
10 [label="gini = 0.003\nsamples = 5481\nvalue = [8, 5473]\nclass = alive", fillcolor="#399de5"] ;
9 -> 10 ;
11 [label="gini = 0.002\nsamples = 7375\nvalue = [8, 7367]\nclass = alive", fillcolor="#399de5"] ;
9 -> 11 ;
12 [label="gini = 0.278\nsamples = 6\nvalue = [1, 5]\nclass = alive", fillcolor="#61b1ea"] ;
8 -> 12 ;
}